function [Y,Xf,Af] = Lobster_20JUN01_0921(X,~,~)
%MYNEURALNETWORKFUNCTION neural network simulation function.
%
% Auto-generated by MATLAB, 30-Nov-2020 11:27:11.
%
% [Y] = myNeuralNetworkFunction(X,~,~) takes these arguments:
%
%   X = 1xTS cell, 1 inputs over TS timesteps
%   Each X{1,ts} = Qx110 matrix, input #1 at timestep ts.
%
% and returns:
%   Y = 1xTS cell of 1 outputs over TS timesteps.
%   Each Y{1,ts} = Qx2 matrix, output #1 at timestep ts.
%
% where Q is number of samples (or series) and TS is the number of timesteps.

%#ok<*RPMT0>

% ===== NEURAL NETWORK CONSTANTS =====

% Input 1
x1_step1.xoffset = [-0.226998406480335;-0.226998406480335;-0.226998406480335;-0.226998406480335;-0.226998406480335;-0.105942718509323;-0.105942718509323;-0.105942718509323;-0.105942718509323;-0.105942718509323;-0.129943286434556;-0.129943286434556;-0.129943286434556;-0.129943286434556;-0.129943286434556;-0.369712487763099;-0.369712487763099;-0.369712487763099;-0.369712487763099;-0.369712487763099;-0.653393402372665;-0.653393402372665;-0.653393402372665;-0.653393402372665;-0.653393402372665;-2.14209847682302;-2.14209847682302;-2.14209847682302;-2.14209847682302;-2.14209847682302;-0.349384361358054;-0.349384361358054;-0.349384361358054;-0.349384361358054;-0.349384361358054;-0.584668999636177;-0.584668999636177;-0.584668999636177;-0.584668999636177;-0.584668999636177;-0.66723276769153;-0.66723276769153;-0.66723276769153;-0.66723276769153;-0.66723276769153;-0.744902226475015;-0.744902226475015;-0.744902226475015;-0.744902226475015;-0.744902226475015;-0.410459470328965;-0.410459470328965;-0.410459470328965;-0.410459470328965;-0.410459470328965;-0.531724083472684;-0.531724083472684;-0.531724083472684;-0.531724083472684;-0.531724083472684;-0.914632084081771;-0.914632084081771;-0.914632084081771;-0.914632084081771;-0.914632084081771;-0.306582667855846;-0.306582667855846;-0.306582667855846;-0.306582667855846;-0.306582667855846;-0.277473691294835;-0.277473691294835;-0.277473691294835;-0.277473691294835;-0.277473691294835;-0.913933925321166;-0.913933925321166;-0.913933925321166;-0.913933925321166;-0.913933925321166;-0.924243140996081;-0.924243140996081;-0.924243140996081;-0.924243140996081;-0.924243140996081;-0.51947317576152;-0.51947317576152;-0.51947317576152;-0.51947317576152;-0.51947317576152;-0.79139227175758;-0.79139227175758;-0.79139227175758;-0.79139227175758;-0.79139227175758;-0.485884294960422;-0.485884294960422;-0.485884294960422;-0.485884294960422;-0.485884294960422;-0.425860372681368;-0.425860372681368;-0.425860372681368;-0.425860372681368;-0.425860372681368;-0.229338853972816;-0.229338853972816;-0.229338853972816;-0.229338853972816;-0.229338853972816];
x1_step1.gain = [0.211455228890156;0.211455228890156;0.211455228890156;0.211455228890156;0.126873137334094;0.0591514617978697;0.147878654494674;0.0591514617978697;0.295757308989348;0.147878654494674;0.0808044823869235;0.161608964773847;0.161608964773847;0.161608964773847;0.161608964773847;0.195196724631355;0.260262299508473;0.260262299508473;0.260262299508473;0.260262299508473;0.237435652587757;0.21105391341134;0.31658087011701;0.189948522070206;0.237435652587757;0.274130634594224;0.31630457837795;0.373814501719396;0.31630457837795;0.293711394208097;0.244663158789408;0.366994738184112;0.244663158789408;0.366994738184112;0.244663158789408;0.318698842335207;0.254959073868166;0.254959073868166;0.318698842335207;0.254959073868166;0.208722762745147;0.231914180827941;0.347871271241911;0.189747966131951;0.260903453431433;0.290231975097602;0.290231975097602;0.33169368582583;0.290231975097602;0.386975966796802;0.281888254669754;0.281888254669754;0.211416191002316;0.281888254669754;0.281888254669754;0.107278825270034;0.154958303167827;0.154958303167827;0.154958303167827;0.107278825270034;0.322412578807508;0.403015723509384;0.322412578807508;0.358236198675008;0.248009676005775;0.210444116002196;0.210444116002196;0.210444116002196;0.315666174003295;0.315666174003295;0.279105539999301;0.279105539999301;0.279105539999301;0.279105539999301;0.279105539999301;0.210266770185812;0.274964237935293;0.357453509315881;0.32495773574171;0.32495773574171;0.346613938849792;0.247581384892709;0.288844949041493;0.346613938849792;0.288844949041493;0.184588720578923;0.184588720578923;0.147670976463138;0.24611829410523;0.16407886273682;0.158349081471226;0.158349081471226;0.171544838260494;0.257317257390742;0.0895016547446058;0.36786688228995;0.36786688228995;0.36786688228995;0.36786688228995;0.275900161717462;0.22206316271959;0.22206316271959;0.199856846447631;0.22206316271959;0.249821058059539;0.234974963707094;0.234974963707094;0.234974963707094;0.234974963707094;0.156649975804729];
x1_step1.ymin = -1;

% Layer 1
b1 = [-0.033078268347830411256;0.054225935813813658237;-0.08329723358487117757;-0.014090861780529560787;0.023071289603795445966;-0.12343117123124326684;0.023686644524605053597;-0.038662701195084629713;-0.046293055058355229991;0.018136147007744594928;0.035508442496556449908;0.033507167216699260126;-0.027279936631804554276;0.316085966285997777;0.040441180329453901843;-0.041202225817033671929;-0.19713077191436390034;0.021318534269694131705;0.011019790298432877163;-0.05150238750118204395];
IW1_1 = [-0.013493126936460337478 -0.066324638790057788285 -0.013385373796080100167 0.0010326126943787556928 -0.011897388586490233175 0.024645177712892644972 0.00054608494748224311981 0.015594804069891075871 -0.018702900625341554314 -0.015459719454054846044 -0.013967499784471603536 0.0080508702998867871792 0.020883436543065451996 -0.029513295657718721654 0.0017312759515934622329 -0.06134360067377010034 -0.021907710748214261759 0.026054984592844301211 -0.016876650397636468875 -0.015977901668629848619 -0.0028973156044387344404 0.043636471347167304913 0.015714878009116275276 -0.027069229335564541639 0.0024091362405688774087 0.040434304830735921799 -0.017204202629923684431 -0.064742988656057653962 0.058178001258873408841 -0.033255298761256914253 -0.053921684774575880106 0.010460970958159655775 0.0090374814753043965221 0.011390232259465563752 -0.014992504324897636819 -0.026860688564715396592 0.0094898255264984129193 0.007131667851277696292 -0.0041443056749499058988 0.004503188884242373749 0.013381301369132533527 0.0027214243069360274409 0.043014006197506400586 0.0045440477531077010445 -0.025259334400725953762 -0.026129389245902523431 0.024852307575899634101 -0.0626087884326942401 0.012454101264418593331 0.001257002872971862235 0.10041933268875749552 -0.01448222818342769988 0.020555818274102858473 0.036229657910823338807 -0.018684911119265613239 -0.012645205200756079802 -0.016908613228725985489 -0.034622755655851294998 0.019615838314149564026 -0.022695023899243382814 0.023493773692211502441 -0.027138746561957624581 -0.028243377376794585182 -0.013693393961999193731 -0.024836376244225188969 0.066157494311284370525 -0.0027069149093860863341 0.037458878243558917098 0.023096726944983617114 -0.019903081260003379488 -0.0072402050165121297626 -0.014086240642002163109 -0.0042976034414973227418 0.05010953535292701766 0.01257800011479633974 0.02617041280145539911 0.0077632493936810103782 0.013746272125811016471 -0.016606056290916049178 0.026787792549288560323 0.018497501724385651684 -0.016376389827610443595 -0.070522631612091754572 -0.014426549305215103508 0.0014392514452665019532 0.009162832705579099582 -0.017219495713800873904 0.020623296455632281199 0.0072095149482647898076 0.0086536780320537048938 0.049458493071185521961 0.037648030338976443132 0.023695249074844271231 -0.044428074583967157307 -0.017368792666210199072 -0.061108969779662639099 0.032180480472563666172 0.04174858975533852351 0.034864989569766892397 0.015386824740506383977 0.025435541910660702108 0.030418294034902482181 0.021606051872913936696 -0.017813655971837771136 0.0017970041992480957193 0.035742449508179854889 -0.035097010215346703677 0.0027173928711233035979 -0.0046149967158874479617 -0.00077816781613410579074;0.038419599883948142571 0.016156713649055333415 -0.0023357470421530432056 0.091436650973046748603 0.0074705615616952160754 -0.036353750905786831604 -0.0042821949985930481131 -0.0098581704773234354183 0.0048707980778291519453 -0.0036818246668839488787 0.088499755706040753034 -0.08906836461367116653 -0.02091744559884483462 0.081829100834238846507 0.017365700299412770158 0.016265726422514174138 0.11950235869254061116 0.051316583350451951129 -0.0095515511611643909989 -0.089125476705251185927 -0.039217070302112272406 -0.14377934294837690921 -0.15155582395938463347 -0.034548987751771620403 -0.19624091031204224378 0.039965491517430236368 -0.064544388220295914604 0.29003665100420222833 -0.029373502624600787009 0.11345853839016339926 0.010613404877692167103 0.0036693307945801700506 0.080102515928294523717 -0.20157698075571028884 -0.033550507387373029733 0.08574270250086783729 -0.040962911037301298622 -0.16971593386379765778 0.056561743236123340761 -0.12443096745913945211 -0.015080957634812942533 -0.031868971016971434085 -0.038653476556555550758 -0.087652621372026714996 -0.070063295772256964367 0.01215963741046849865 -0.17276531229089800434 -0.093760987123648456554 -0.21360877515374532276 -0.18183338692648332025 -0.14322707564572864647 0.1717630517620241104 0.16833641828774453808 0.14661046241558189918 -0.027086751489829051509 0.039845512893976191282 0.014047959002241514753 0.0084174758259990666714 -0.0028203377240501939505 0.084076391320753313119 -0.13222140532287332548 -0.1322948382371018361 0.0060063960366083090497 0.26357645045683625318 0.17093580178905329325 -0.051699252417734473108 -0.0046006025121885065279 0.087371743445819327611 -0.11103339174266195488 0.059105789745557191228 0.22279017523737737472 0.11928252156863926314 -0.060840004916630198439 -0.086663637021540576577 0.072628002383514314588 -0.14009051602790384417 -0.12385346167983152244 0.010879988080353553831 0.20136542484251732099 0.20793017862588242251 -0.16614813269515979477 -0.047539308091589599359 -0.007991433495056208744 -0.0010993538783623955837 -0.01570702236814998376 0.031907509598794854544 0.11093640292598772046 -0.068885299645445097205 -0.11955236175350102135 -0.11391867523527543504 -0.15153327933074040024 -0.096579295998057188011 0.075887224493002447545 4.1287799647983557463e-05 -0.0083791543866912638477 0.075254334386948937285 -0.12520762616194669459 -0.13123576779368417711 -0.069263863683407728145 0.12280743268225281783 -0.067449355239682581842 0.12954899359464092101 -0.092477172072548019521 0.13739143202008760603 -0.006441785396193579899 0.038897428006560208491 -0.011757203002478594511 0.21820774462311881559 -0.10087589014120858233 -0.028184350374021664709;-0.024849415573943187813 -0.21119931326423646567 -0.11535763373933465015 -0.056245900471875845406 -0.21732841962871105035 -0.062707433250412780712 -0.14607848499173992085 -0.071629456956138301549 -0.097140439806870745865 0.0099119367430540623876 0.093125363029178329088 -0.25004819039751158272 0.13627761529300064236 0.27476245953387790077 0.11627366644152663244 -0.014304169444580103893 0.059909425638266476655 -0.35784005654285844233 0.027212118027113384872 -0.39431595825745097139 -0.21144819628598560124 0.29788044140622754741 0.039342629811457405231 0.37094095023259099353 -0.023207731283069816391 -0.49175426692667983941 0.035922739211491215572 -0.16934968135783651233 0.070870527032673977241 -0.037416529785705476829 -0.1366712491550073072 -0.069678162400170939872 -0.15356551024597367427 0.14434056717431961725 -0.082228502803026876089 -0.0019427257859190515902 0.12515423835115913054 0.060545255836572088592 0.13653579107095742406 -0.31125452722245022796 0.050763182731134129377 -0.028891689413114422791 0.20171648710393352832 -0.072227292015819385962 0.05205936555242175745 -0.3550030942515979282 0.01108707574944061032 0.13904335284747373902 -0.086411184766792228928 -0.17487322597091031762 -0.48660694704065204919 0.19059271298582053378 -0.022218829582674713002 0.17444887517519061526 -0.10841384848441493194 0.18112222996562879485 0.086437310957316201843 0.18787075577703743479 -0.074457667410734867941 -0.15231588627606493236 -0.065351508666952842774 0.021411971485070558502 0.088311760494085053685 0.088724222078012490722 0.28011229151131139536 0.34312488125973744646 0.32887547820424345435 -0.089634657425748318071 -0.31593254717486041194 0.094753657345940822676 -0.12288197081638130292 0.048794896831417175487 0.055556153299276982149 0.060742686486745897656 0.1554609397448679653 -0.10980936236018004615 -0.056720034048312578667 0.027077764865621550827 0.010968360347750770803 0.054401106022584778954 0.053233634783421496239 0.0095430407419254265067 -0.14872296757103220521 0.11755150386855535427 0.14975014207771866759 0.01196065741423052442 0.094304880071433630495 -0.048771045137416979554 -0.10726901264545342374 -0.27591391448861629643 -0.21801285355665100951 0.0010613600215558446904 -0.048221932681662291187 0.17858643746506813743 0.35431117292881519898 -0.18695805534751699928 -0.04954493118622961545 -0.15683619617111319022 0.0060082275206925104746 -0.051473757473485037828 -0.12777944777195401893 -0.10561225286933176304 -0.088657072415417051414 -0.054237911571164212909 0.27336475336328563968 -0.027849244373157715227 0.062216281134219557358 -0.19503161189852286084 0.26918292136430599371 0.14987814518112457796;-0.034443496332645616442 -0.035008490844213924209 0.020525231524630992846 -0.024145194012502431413 -0.064856790675276124181 0.0073110559202470863302 0.024596189076514379107 0.0011157603906778279079 -0.06345745616574141601 0.024590387145844098959 0.010837928347461604772 0.031099474520773245922 0.057147603905169513938 -0.014259474075702934653 0.01674069217989420863 -0.013140967565596253785 -0.015715954230381121159 0.031429429108706045948 -0.044872396351652819868 0.026943484869146275967 0.001024742632281867849 0.039624908057533506089 0.0090528966302911573205 -0.015671569401133372823 -0.039040270555902645278 0.010419230002154297385 -0.02498381056971874653 -0.046664378340376101717 -0.021738857003356433506 -0.036939753023230693929 -0.038239424126694558648 -0.0037965237983314235361 -0.016725727854082911294 -0.023687253413277591096 -0.011833949746789730606 -0.069279881953218255819 0.021658435174594380807 0.03332983425122720833 0.0098731008778311021845 0.0019605264510004871518 0.038670840677646763084 -0.018050545302256831848 0.027664231774815736808 -0.044954220751313445081 -0.009895858074100226387 -0.0067105580458084448589 0.029989013265271171477 -0.06604072363463277251 0.033068771763828955224 -0.014812252673492990254 0.1021921517276362934 -0.022775205320985418556 -0.0047612301883451632264 0.0093490285376174545734 -0.013064446209224950257 0.024918000804301166512 0.0045922577383232868198 0.05159433970381634843 0.043045035711529351652 0.024017238657275837704 0.020685056091884711921 -0.01586872519662779063 0.0033381075810638241065 0.021658141026557838071 -0.017421033544403462245 0.055167445046166468936 -0.012299564322734981778 -0.012056696854309075298 0.064587769753563020747 0.016344852677229747967 -0.039645167204740601463 0.00899127275972769896 -0.002515982042540917344 0.039104343248104432573 -0.014426915826233198403 -0.021514951569783963975 -0.036943317421121231459 -0.0073575015102734266093 0.0098908256545625714701 0.036658383551121970223 0.0048252364466533264123 -0.010658290768862354811 -0.011331982585481506151 0.0082208551512565741087 -0.0072653435124106309148 0.054794129477936943939 -0.024956841858034990722 -0.0043280510875624940079 0.026763403260926396654 -0.037208829385680333712 0.0061075551269838034354 0.025178862964814491959 -0.011665399579485745754 -0.025211209056463956824 -0.00082294962760805288708 -0.025908867295096775496 0.013680792164630334318 0.051275182562320158197 0.010144333592986347695 0.039429859776581151209 -0.0059533313442456659015 -0.011260396835408442717 -0.018109170729821592871 -0.019354037062035353567 -0.027668159077532679391 -0.02281879493727506647 -0.092123737592442161981 0.032412022227821558895 -0.003482403430807198743 -0.056172906218411186585;0.026044199878724645647 0.058195401761804613217 -0.0039567782077799158735 0.015504248266079288798 0.040628141694935573924 -0.014870763525930395105 -0.0080815252469441413441 -0.0073547124165239613838 0.046221867252707105056 -0.00026924557689613024675 0.0047951728600349706466 -0.01169804529883752657 -0.032059574501974871796 0.025940853595230309314 -0.0071262065626561676979 0.043013073396255027681 0.013027116276481447155 -0.034413031973524209339 0.034400119196169774705 -0.0088633884067257171641 0.0065033253532325282012 -0.041800094189143460754 -0.0071990066529351833327 0.024620776693425605597 0.027389445626477579993 -0.024015193520812886524 0.027366269064471482331 0.055628051620833555979 -0.016882793759620880192 0.0336946947696444149 0.05237789565726715113 -0.0063584146430327509111 -0.00030628817531712550096 0.011909088781261201531 0.011061768904081880141 0.052833793871083056803 -0.0089179705749108315049 -0.021915648202718261695 -0.010046607985652558637 -0.0031594867371171606908 -0.028826186645451008783 0.0090614451093228489537 -0.028738458228874608213 0.018842960945252097693 0.019732925170121387581 0.013747073606234058024 -0.021983880855651241615 0.069221398051403329466 -0.014459974175943888369 0.0079609844734881314576 -0.11064301625872259571 0.012115780784842275844 -0.013909360796589444534 -0.023898036923764662959 0.02058552741731197247 -0.0025609383255747902343 0.013832622803453053367 -0.0036079507479770960184 -0.036387884660592673125 0.00097790114805912375928 -0.017767616928787650921 0.032490639638882740092 0.010240897049439461747 -0.014788677303567561785 0.016051646708603206637 -0.050778237156908115346 0.016086525379660061158 -0.0079385783368699450874 -0.045802547157895806551 0.0031262235189346986204 0.019823089968536114491 0.0055781363993485317057 0.0042163818996224190425 -0.033770642438776685146 -0.0025953170238209653624 0.0010920861792078034695 0.021326818509316954053 -0.010174055968158504312 0.0022586251251997704718 -0.040139865933421753352 -0.0023191350191972804305 0.013968897919258678811 0.038007330526733017206 0.0044806860416086707194 -0.00018814564379962097685 -0.035680796525578345468 0.0172713162266797636 -0.0046694733588597955518 -0.015652607193432858945 0.014705409629243089073 -0.025299851477436133967 -0.0243769128039005821 -0.0088013926385743165848 0.03254821329994088408 0.011204157873877056834 0.044613032314647478593 -0.018816608995023159645 -0.039607722275917210675 -0.027275053424162698512 -0.024991782511588168242 -0.0098886493544124015598 -0.0074556413499621328883 0.002644272335213259089 0.020553302075530299753 0.019788795353537596416 -0.0098944762974318995613 0.067098490998449542011 -0.027793052009237994432 0.0041916257329238423152 0.028513107686931826734;-0.26315016876585256567 -0.053126202985810735968 -0.031812304525528918575 -0.32693781124585236109 -0.0064456580692271517319 0.25844935744872049588 0.11879546147736951001 0.067937701560134913792 0.073688880377531865151 0.10931054568834719376 -0.078148505602785647839 0.27124306451940516371 0.19896768245964160937 -0.055008929394734264184 0.037748169209222519338 0.17773782248497169145 -0.21500667836785633535 0.091639568887280267728 0.1548608900582158221 -0.18041265453752736159 0.070051341501552857882 0.12316858471944240605 0.23087183727765131502 0.044970855363220582634 -0.0025811346030446564309 -0.25626048834953651934 -0.20241462093166762148 -0.26923682174419538704 0.26772741897639884545 -0.048307936543305139698 -0.1941254770434716892 0.010616647917559882131 -0.02761144596821368466 -0.0041342200614731990094 -0.14831324446173349552 -0.070077896276601936432 0.13400771097711755564 0.084133986284848943926 -0.080636882207411234025 0.050026442779296839691 -0.040251717937440464889 -0.035914167632164317734 -0.023854969784397266064 0.1871184022363638344 0.092617947116872656466 -0.11093903762252037282 0.17962306813804315708 -0.15207938216484057081 0.058196597800654482902 0.018607626683376548432 0.13903632744264210475 -0.3321798455939211081 0.068167962577746654684 0.053207520769619667811 -0.051445827924116616092 0.22184360213428425124 -0.022931621604434571093 0.11585428301653392935 0.13171020113484829817 0.040083260264659248406 -0.26524199249254087896 -0.37436885601436420412 -0.18011877078408564112 -0.31096296807796830475 -0.36624474353911895541 0.34859142324665598478 0.029259170187019716697 0.15979943032471086162 0.065401812314970594886 0.0019353316628922376166 -0.028349715123044759435 -0.17345412052606917763 0.059018746201456605271 0.18306936033004694853 0.17396851822617312444 -0.065819534701647461339 -0.20066969071020360205 -0.36854475065311315118 -0.22011144428091863889 -0.1045057933628253527 0.092374934994733662319 -0.16414683437593183268 -0.11865077711884444711 -0.26595277407427792005 0.0082357631128975941626 0.10672418172718269036 -0.28665561366969077861 0.17394772490841112211 0.052724029085529221239 -0.069083564293549365454 0.16780268401209574858 -0.12461926519219745924 -0.040532524886070502024 -0.070499745353178669416 0.09938377000702981745 -0.02771107711143883448 0.026708390978771621299 0.22027060633935230394 0.13293088988158380248 0.038485969385928228692 -0.13439422009390430968 -0.10656115153847944832 -0.27988391070225904222 0.07993841687408272112 0.093539150809704998957 0.02761425588488100949 -0.20901736430925008103 -0.23757467997074582788 0.2088349402537871824 0.039738274488218594538;-0.031078311653186890817 0.084291201844359980866 0.067584819076585367359 -0.0082493326603799137925 -0.016349260773271537955 -0.016694249859345613313 0.07465362350997421792 -0.010248220859698632321 -0.096589161516643873284 0.11727604415079247169 0.029410454003144802931 0.040156770475705295953 0.11377303093931276368 0.088437385562817397155 0.062451823913471038452 0.13255465467241020483 0.02199137907893529767 0.0009612196758434111022 -0.0048979380039150454892 0.064339248399331222528 -0.002689319505977622992 0.065558010455752643852 0.013338273194056275706 0.0069732528102920063318 -0.032458650643300279715 -0.04100303491439281911 -0.077396062745642868475 0.077068784835511744413 -0.046926688723859279195 0.00072896948385342574296 0.040942313961012020973 -0.084236521239984193943 -0.065908349750698577707 -0.059949490464994252548 -0.053213056380221751551 0.040754673767048242572 0.063749295668900293754 0.060327890911757858783 0.025940581364951465632 0.027523080277812753819 0.015828436911492799188 0.0057018147079538695002 0.0022941366614772527519 -0.037615135984418887616 0.022283875205557097249 -0.050055672524785405075 -0.058484479856046073243 -0.019079782551035491533 0.012615892089563120887 -0.15356972482866074192 -0.014413984683206107484 -0.021821955596974074859 -0.019760191734476639097 -0.034803639045762516102 0.073083767169089874915 0.078613753131085359338 0.10199808419452072172 0.17560016286493948523 0.030919026471217015556 0.092520402032414530979 -0.020353732416133470812 -0.067903727554024906343 -0.072343375163360396085 -0.10068002909072094886 -0.042173522402530895514 0.010837377713572533128 0.021583822961862439427 -0.01790983046607745599 0.0093467400301587618555 0.0070404879251002141019 -0.072680023954844685807 -0.034787395150455209525 0.047823605177079286932 -0.022410355851182634651 0.070562782426828452031 -0.057536016602039469214 -0.085114637764308720413 -0.16289128072391531599 -0.032285009382895787922 -0.081183614140715218421 -0.013167996825295406188 0.059335161260034220698 0.076486357947864153095 0.16602896989894835866 0.003932976527293624916 0.11872277202255943074 0.011536638960247522223 -0.046055845332902405065 0.030972904095805983693 -0.03179666853734965104 -0.047022761455667555497 0.01839157048741197481 -0.040074493819854034582 0.0027214666852946175699 0.029266384519152303934 -0.078883452023202862979 -0.076585201214737191888 0.0032628395688411239613 -0.14962125254164990173 -0.040743080823572017102 -0.0026727889159285176529 0.011228064002002423674 -0.0022365587531267766899 0.097717941162240348763 0.02763248407005719498 -0.057812377257034038014 0.043371033981293174997 0.035405899730855817931 0.054013200275445205634 -0.017707380760324416269;-0.015360494777191419438 -0.10554463082256440587 0.028044610928102075426 -0.10709322646701234516 -0.12476613183648685435 0.033263552205720040011 -0.0099405608365601728915 0.025843755069978695954 -0.12086938055722216967 -0.030342088676749374987 -0.065165751846381889112 0.037297401710761950155 -0.014369140432334091134 -0.12625943122577779065 0.023217099025222221603 -0.071766196831364828523 -0.00025809664762514744228 0.092307562404107423859 -0.08586443338725126273 0.079219630787006042882 -0.0063169739486930694475 0.067619964521060907381 -0.052234549528048956901 0.049593989920800524152 -0.064104191723936804204 0.019522901385146437803 -0.11333552851107212001 -0.13666281555301137973 0.13806567393868132698 -0.072742382862752766326 -0.086569020068698654402 0.099069461553789581187 0.028393728151767320955 -0.0056185021539501113844 0.061993595310465478276 -0.16600081135415548084 -0.070322891995105496488 -0.050819418464433115112 0.023503464174682908716 0.065650360578055955152 0.1279891411846322824 0.0031889162363935141115 -0.1237546080863998893 -0.020034399093677917464 0.0074438765201444755462 0.019696033155733788655 0.0074089400762426668376 -0.1663757033497320903 -0.049135834846114619101 -0.17273089154765236541 0.15995920902584431778 0.024842668029939486696 0.059316200233139694531 0.05526833905534372926 -0.11699331272807819704 -0.05079923504323967387 -0.089503341358335930522 -0.046472420592441561482 0.09091242403318758325 -0.016079803932999178068 0.059424154197679150691 -0.062898381660600966025 0.00015337989063058613676 0.12452934211849744917 -0.024060862488227235251 0.0168588238746132206 -0.11806285885006778669 -0.0050854264185890597771 0.19423688715448067521 -0.017101216111296710376 -0.035329287625876081014 0.017816996657121011993 0.014200581635380007603 0.002956441685349157824 -0.071737391855221710468 0.008911474239784512516 -0.085073013772513070285 0.054410907383875842247 0.057627349442335738805 0.074343441653614159015 0.18361621965429375525 0.0083926440760692996162 -0.025202276214704239649 0.14006296412537891372 0.10879064313834906075 0.094433415614426780005 0.014547530640085270734 -0.020428188889744323259 0.12106410825593734437 -0.050603611132462686384 0.015851680393444790573 0.009416554972798299103 -0.042359818617795655382 -0.021532773848487916923 0.020724857847119377424 -0.0441563995042609167 0.009327697188861942823 0.13862105982855013608 0.11190564661024408888 -0.053274578414985097885 0.0073590297578396118156 -0.057866526189975932282 -0.050984460177178392293 -0.088570307357287242356 -0.11047280120148943172 0.021522951072820262208 -0.21594138157385792121 0.082008091314898501345 0.0064540500946475929528 -0.05322475918859466415;-0.023765089419173983376 -0.050773587177498621936 -0.010718306214172006879 -0.02949484973720934225 -0.02360864647691204507 0.03546090877861934193 0.008097064469229822703 0.016444992462637850195 -0.046988107484873489761 0.0044643158719976884161 -0.00049054253624059083842 0.051341077209307521556 0.072719908109939945806 -0.041949536419868316273 0.014871433873590446384 -0.053992000251782051867 -0.083177579989960823137 0.0035647589973784544679 -0.041860315337660797264 -0.0058399034498468893606 0.07222793377155714567 0.1303491296248473208 0.049599288673805710936 -0.061839768335588379822 -0.018505389127185942894 -0.026794931904120133925 -0.1102487569138767276 -0.050936475624765165104 0.109014058593144475 -0.097377366829451750263 -0.08363737022789341502 0.053850903540253625135 -0.058955971253412807476 0.010097436653715397351 -0.030277299850904059592 -0.06899665180844115342 0.050288734743561533391 -0.028705034053803604732 -0.035539198324857357303 0.02125166448317231116 0.0044033197844933211554 0.02036685748259495915 0.025912035285203305346 0.017455967675326818089 0.0092261541228004281118 0.037443318468311809211 0.17204390466851324226 -0.0084693216001560118339 0.051206992320750044367 -0.036771624265372886142 0.11462388407423974857 -0.06178667869957438219 -0.035335356614776089468 0.041777207934606465367 -0.031301253883432883507 -0.00066481674186547197979 0.017729716129883894837 -0.039712945464159890574 0.036544353829453882221 -0.026782269248261689892 -0.0080503237362690542589 -0.15944752185513941245 -0.037415348551093505214 -0.0078546980992290349466 -0.045277706435339515334 0.13969628771827274916 0.049681061680908633615 0.057690287307608015266 0.018141260618712708869 0.0086225369809545641953 0.014920663703049475216 -0.088464069743935544454 0.023002218186899688057 0.074879092990101134286 0.03995643130136371235 -0.0014164403222059868646 -0.10531201007137748482 0.010242097885070220592 0.0054199716441770398254 0.0053266654203311669669 0.10217364488934939371 0.029728874445143049776 -0.024162415815059321705 -0.17469254646305415468 -0.10518540958413755138 0.040145174341517375627 -0.039700799398012590058 0.013864224130027472809 0.053200691477270398155 0.0049863300007151932849 0.080780242313302094703 0.095326320900515112977 -0.00413838971115581232 -0.0055720339922195986915 -0.022154165999550747695 -0.038419165201021711342 -0.010817785739820857255 0.1089466838096405793 0.034368514672210491445 0.069354842925570120427 0.005334238690051597287 0.038508109990956038149 0.074441931506303501975 0.024306736322421137325 0.049900815080665607282 0.0051743316013162302114 -0.051899075098387814631 -0.016116810249333184818 0.041317546736482649306 -0.017561127356258560139;-0.084697025072914405852 0.20664393485624998892 0.18534437793350033719 0.0062223813946516550247 -0.13305284904682621039 -0.047272577126802349523 0.16445148656192226655 0.06468814844636235073 -0.095883562244816658571 0.13936900748724373456 0.024875899142871627651 -0.19851966517421387737 -0.173375182033209424 -0.095131018106199741191 0.0026130843774827289955 -0.26473388108172724031 0.50155352754331561371 -0.075948131786488487505 -0.093820115611879348338 0.18715795980711022461 -0.23959640230509343661 0.23127921825249628252 0.0065552117481159164619 -0.13348785761954648499 0.2149805000036058289 -0.22575969603271817121 -0.31763841355690342061 -0.029924785728196186263 -0.19495877197916466894 -0.12616174270801935875 0.097109648279182822495 -0.081515467752001358193 0.062276807237439842091 0.041975487488603829833 0.2564281787524125833 -0.17785151125091713809 -0.030823030127745985191 0.037106290835856772792 0.044562065388914259834 0.11148025671396423475 0.20421397821853690124 0.12438875644595989711 0.0092190734263903201251 -0.10188774209134261739 -0.051449731600150684641 -0.13204692927683173154 -0.3914664880126613733 -0.18738568700592717065 -0.084563182136809286749 0.21902356920683604957 0.29466755461073262934 -0.054555394678183433133 -0.13222829358003276856 -0.013077831369203717776 -0.3043791727230286126 -0.027055202252844138405 0.2496503377336748708 -0.20849900512803715147 -0.029221345000931334135 0.089544873017685794325 -0.2327845109613711494 -0.03932648128780356217 0.11103338863817063809 -0.05119239971494109892 0.20610971148966986122 -0.12088403350011768522 0.14297328816516644001 0.0088078381039766191068 -0.058614070018978330079 0.46648407393205498783 0.00090034903998332475178 -0.12775534782975250803 0.080047715686580270256 -0.13538493487152897243 -0.16592414690553949908 -0.0034086721939264211061 0.068272270110698349277 -0.010401224110328436204 -0.089544639389325886292 0.017298894256573944805 0.18306486687599279883 0.042243154015378453492 0.039550011007170170207 0.2501202040003069893 -0.0091784579100081861019 0.17570232273083966068 -0.25017699500507301069 -0.15033686392017980848 -0.0010801308524889246133 0.050434530557363077552 0.27970445977824587303 0.18949452501995994735 0.27692928219622814368 0.13505704421553599293 0.18449778470639757733 -0.029884672583900442899 -0.021796772965717626375 -0.010197862688849089127 -0.11028650117963845201 -0.15242821459692293407 0.18973902399128639296 0.17629145014346289666 0.1313717564489866596 0.078983518340987032835 0.019790345539297603955 0.04556984172262044247 -0.26130098683994762432 0.052990980159160171181 -0.15401092421190246129 -0.05045424545385407411;-0.022176997449093134585 0.14130633993217892042 0.030466734755957684128 0.037644597434042963158 0.053009881215192067305 -0.047708444141147755835 0.062568854395738046636 -0.023625738824658674975 0.021414257151919871558 0.041578756686451869007 0.020874003731980290965 -0.039523114498222176871 -0.087157097928180632396 0.11712641673651805196 0.030176137778294895991 0.045259410765186365577 0.061839178662865305902 -0.19721773728103683676 0.016203776665754711372 -0.12006060152088830761 -0.12050824547440157353 -0.034929498965189487159 -0.054945495207799677218 -0.054294775587552843166 0.0047099709172074028657 -0.076013869668554709391 0.014910986025229248583 -0.056362905061727933131 -0.020142712323753014098 -0.12197421814668295281 -0.042647821538469014857 0.055627900102122526671 0.10076839496015516096 0.2323378131599988794 -0.036987389230101926085 0.15025107497363249243 0.013356100431186086058 0.017696437039092099974 0.12305652947758090321 0.055582262743634668067 -0.0015114355990140245726 -0.0059925006505987489167 -0.13895216098599155741 -0.030990602775095049681 0.013238722039288022131 -0.18248258321997354314 0.013243999822250733869 0.07402530387533769185 -0.15027932670200136456 0.16676175967953654755 -0.17186447901355814127 0.0057425380404775676346 -0.014036205886558768621 0.077837200809358519926 -0.021278969974833382428 0.11790767751630482074 0.15314490971740807312 0.12407548442365412544 -0.047747762104251093018 0.0047373782554646732754 0.1350920614695403088 0.060665958945199924268 0.07943852207555657241 0.018222179356416186302 0.005320104219212802403 -0.09106694291217422299 0.087418269127931491624 -0.1319490127415393621 -0.16516269257568857998 -0.10924846422313710947 0.10688237711948571362 0.029089982962776480407 -0.06827521372754062623 0.079399733344437270488 0.066000236654048874407 0.079418507302864052577 -0.0052654649499875574511 -0.031392559411719644924 0.017565119108819894633 -0.13715772056989736227 0.10640992545387877033 0.12394654966400212026 0.10582557354067055611 -0.10074551210172265348 -0.0058934540446944029199 0.092672073869011176162 0.017081570242132321918 -0.0078629732053931648134 -0.021585767292191596067 0.054616712643996749577 -0.12768408616473617134 0.054738552979355301065 0.0045668951160946925222 0.012145928603393295678 0.0001647272988333827186 -0.07057081532714315486 -0.064570189909374908765 -0.23571633090919394404 0.06485588342713348442 -0.1654808349498202158 -0.052516155075553128118 0.08956594612125146071 0.0012728140372446654013 0.11370778993172028781 0.14931578836089032247 0.0051441046453382151954 0.15147589076517037343 -0.11160229370909288682 0.055645594005052465003 0.013104976164284532977;0.02921825551115383654 0.064408122500678691158 0.0022388446486050028565 0.013749891733682293934 0.043112850816587569569 -0.022873360906258730085 -0.013457510324364849869 -0.012977236290073475289 0.044775275594602578777 -0.0037969892245671645233 0.0025541539047846811838 -0.020589878046412064122 -0.048673966028919705973 0.030225278549383408078 -0.0077238566723012991311 0.047875973886738906748 0.022676571963662548598 -0.033912417757409288321 0.04444049109114557583 -0.0069260550095143228952 -0.0073789283271379069173 -0.051488975732823731579 -0.014424797301402177141 0.035494936823086090105 0.037178697405167035472 -0.040875574498174846449 0.038191620456546983287 0.062549696115267325314 -0.040283461079229233859 0.046242681152295288249 0.074423848050983537616 -0.0077809859508694107985 0.0021888819495399620095 0.012012506132327634145 0.024305289855596167586 0.058119384613823800445 -0.026865588586862221288 -0.024655192207272049604 -0.011245096728990188958 -0.00070662328000668621353 -0.023628313438926493856 0.015865747560503875441 -0.04645453187461767719 0.02595043417161580282 0.019309226450327940383 0.02700992921996913862 -0.029733159142693973281 0.097598141798835622018 -0.0025330550587357126766 0.032234709488049316517 -0.13172411601811792603 0.02004962124082086683 -0.018165219538046048497 -0.03595280227701298098 0.023216932354546034045 -0.0088959635827347560699 0.0094230508098745082574 -0.0033513966658549410385 -0.044522441237202274589 0.0040567534711234941314 -0.027283750483591294456 0.051951257873916655006 0.013020510132887370275 -0.0196570778218664588 0.017741121013449795418 -0.080612298015400776774 0.0063576811969769620944 -0.022136201957453228994 -0.053120530758189704601 0.0048650167141255622888 0.019367389099741394443 0.01391901858437641186 0.0069181766065894712003 -0.059769495402836783637 -0.013131636053924205729 -0.0062823812643528339703 0.027286218770623031638 -0.014126815231345180024 -0.0063271940509040270478 -0.052304660416474794971 -0.013438824797397334182 0.01868131777217576367 0.056375803908505543738 0.025065183018194155812 0.021139402685373294422 -0.043981704794139903081 0.026171740762933288355 -0.0142627004442168661 -0.013445850074441175956 0.010905407591509942364 -0.041514155536645412636 -0.041923858718369885756 -0.013596241303590678867 0.038567530213753767332 0.016350356393588762194 0.059333935625339673248 -0.031676657755289543139 -0.058323295831527677269 -0.043459666052255284396 -0.046128178476492913418 -0.013564780607681081043 -0.025224446423373684395 -0.010116957420446900592 0.017043672851317637207 0.012069519933852197735 -0.012959709844291384881 0.073472714694061677654 -0.027287149774014751724 0.0033582000261634108347 0.035662703147066016074;0.19245117251327326091 -0.11228774135156055491 -0.02199828395980046522 -0.30750852743529200062 -0.40915720243140341061 0.082545416255511649961 -0.012545866581183512042 -0.10272448167915455841 0.085836089515477692613 0.02442072238270957818 -0.049186001551779337526 -0.03042942622522071261 -0.022651425832256794068 0.21392823111404696279 0.22726058299015947095 -0.21880822347153841556 -0.09033667820671675841 -0.05306545349964798125 -0.17654251410435387037 0.039223456133934637979 0.054969755149274004968 0.32993850522571194217 0.10790496164528980139 0.082163104397684580404 -0.04490796113663604594 -0.22583449483689690962 -0.0054365719131049920765 -0.037153952239069219787 0.1213603086490332994 0.087905498905610682248 0.037282153971827922123 0.030819581403499003713 -0.13627838582980544846 -0.0047782498545884313085 0.049132651573602741102 -0.16867002709732642485 -0.080156098747522816494 0.080344537567233781372 0.055404436434696342773 -0.16842295144682908892 0.15012707174149372835 0.072474643149103387674 0.17776844077942374756 -0.14762898245363087479 -0.064309588260033453966 0.056986514423963310905 0.29658153134060533107 0.11951264335491991464 0.19603911948870467175 -0.18926899172600059051 -0.16798042213401079281 0.16548003357230445243 -0.014220507966998299429 0.10467171372769698556 -0.022983376784750222943 -0.06723729621287229119 -0.12291211473393789944 0.029895090921881563306 -0.0059946565705099996019 -0.18652875928732012833 0.16116180147818920387 0.13742308737592154322 0.075657816730474031219 0.32604191541014460043 0.24207590020037417222 0.059473111857314055195 0.05330353545372164964 -0.15753285855896889678 -0.0066028153209361263587 -0.23211714901686270052 -0.2223432014501282028 0.096825804894664829758 0.096439010026155277955 0.11788217540200289501 -0.019525155502831490623 0.053485507498557585682 -0.13533591742613770847 0.16656679354458173159 0.1053601798971811887 0.039906391930335585738 0.086321526259189818031 0.096964049677847302666 -0.10854020971484924785 0.15638304089445878575 0.04147120904530015445 -0.099438546693902202245 0.34891261678862933726 0.11866434083235205543 0.22820454478824625522 0.027840881499600966115 -0.016887823009565646609 -0.027640033862789605001 -0.10707568793314187205 0.066599658949518733553 0.21755496972494461905 -0.13876214247774809607 0.096671400653122879776 0.10688094698130046201 0.022396488424369809245 0.084975089467073453009 -0.13324227936366805913 -0.51059063941459192915 -0.11290607111282945085 -0.39045943374663022452 -0.24527484193490148301 -0.026364014063573575075 -0.12091151665501853607 0.18286854074075989396 0.18543691494295427846 0.16174930197065573445;-0.22478924984312390056 -0.65812131175401777927 -0.22419857003354343172 0.039066806327297781687 -0.018601427288760304102 -0.17030208125260593022 -0.25074382988498661318 0.00039065484679635351399 -0.40957290496687026593 -0.17268377106434928958 -0.10319845490625031981 0.015098353980725941551 0.095540761070358526386 -0.12249222796210303132 -0.22409820291900309219 -0.093543378111854674772 -0.21475264453925438368 0.03744382453649427317 0.098449419284492967197 -0.18488855320512689873 0.26473572609112483445 0.11220730039246319676 -0.031123608113915693374 0.32174023741723289938 -0.16435933806748115327 -0.060462881845899089928 0.038576048810979313153 -0.20335627056718968975 0.33274471598054961019 -0.099692411880753964426 -0.29297579582951344124 -0.038341513704366482485 0.058541406365311778048 0.13203328143645609583 0.064544287314608636552 -0.15444698242439292013 0.14483848467025137174 -0.037331268835024883357 0.089201169547884331945 -0.14026089108855999132 0.15589998831780860211 -0.093038848419385367094 0.1365668847425815513 -0.047139247484794311038 -0.13414426835548201589 0.064216021168442341538 0.17887536629508971053 0.028741240857847911994 0.010692153332493684742 -0.070777104737661092337 -0.14223625947565812777 -0.013910338370782704409 -0.14529176647607722206 -0.030984546665027024731 -0.11069086245028436633 -0.009844788349976422992 -0.11775892187030849445 0.1139456370176732819 0.001372704572275114214 -0.094350248197606886857 0.10203807504306225407 -0.022189124145020083789 0.037748536830438043921 -0.15360169926206371227 0.14134733634745361153 0.30793699895109449827 -0.054036073893451858074 -0.029368116220654119641 0.10951630317382921032 -0.14698514977088292244 -0.07544234627806842286 0.082272714302468533121 -0.17887140234015722062 0.31563369685344833115 -0.043322341949796443206 0.32835461160479223475 0.71723514833842139105 0.32647276830221305666 0.3070452497183899232 0.57889082463697461023 -0.20155781010801110398 -0.02704134924945300264 -0.12809759351090968527 -0.086297256421953127958 0.06310742573329665428 0.14128032795737741067 0.09123701520399221665 -0.029866808338349683238 0.015443707664042441788 -0.17118089917854817372 -0.015019803988573646528 0.22882426014998488717 -0.17676108206433949199 -0.17970813740859128971 -0.13756606419944347741 -0.13252667848845256504 -0.003674433573255620443 0.015697400727080711852 0.11079834421292251989 0.059129700738354745715 -0.015881773677314772047 0.1311339593366738776 0.49576863283124383841 -0.15295110100334091685 0.63964684945743999211 -0.19114189858937596922 -0.021392900625728683561 -0.13299431884862750186 0.031835420993502630549 -0.015118857573626619598;0.026545846347687862554 0.060525141360069326102 0.0090419604067697879196 0.011801438583239039562 0.038238851963804484924 -0.029505540005617263838 -0.017228944581653613671 -0.017462729690738858224 0.041581626697158854955 -0.0077954643402220582041 -0.0040570371558193811523 -0.031510494050377403641 -0.070283887340169451385 0.031835819325706109229 -0.011081323773350514397 0.051166412713374812005 0.046236396774561705492 -0.024197275074858224514 0.048185004833382678868 0.0020096840895646810553 -0.038262350286580523728 -0.0713089474235940185 -0.0231890224984177655 0.051535736840845169926 0.042601414616257923806 -0.046671808391926451753 0.057184864754581440915 0.046640785584258000196 -0.076270001978308965551 0.061874590525084496861 0.088403878723437481768 -0.015762205475167202079 0.012434698651325973295 0.018700912521834318902 0.037759218799161303748 0.054737785041898363858 -0.04796250251579950441 -0.007600359790117331045 0.0062353191496673709623 -0.0029642843035941543461 -0.010276301663187097091 0.016504795444900514922 -0.045563683308848218489 0.030670297184635941096 0.013754008104326495218 0.027486219000407659252 -0.054536571974768931204 0.11102090990036125873 0.0088350685193853851357 0.067254142664471064372 -0.13410206798139123752 0.032346289201806335822 -0.014690105512010125446 -0.05589867277015447139 0.021846901574891594566 -0.01445186566337207032 -0.0046445324822130679143 0.0046790497842713850429 -0.042494383236261465409 0.0084417254527487141369 -0.025052790621902465418 0.089767735519857255744 0.021141221105930165652 -0.022579073028994856714 0.014514095799469443199 -0.12420818558808309484 -0.014817041174142552354 -0.046500779335375060086 -0.036703180523797125645 -0.00012755446735174805943 0.0042634413241485523763 0.028980636263574024308 -0.0020710358548547288214 -0.085352058550971610096 -0.028943398107942927555 -0.0074132915218091122167 0.052664883393932798716 -0.013216740035486295585 -0.019887518471865022612 -0.061821186395433200267 -0.038959187535983159922 0.010127084468025265851 0.059406873353340911015 0.07385422572886321535 0.064004558002730430055 -0.045604532531020890163 0.036069871558260989397 -0.019109805032442486739 -0.0062073995610303998177 0.0099223214326523284656 -0.057840766554333587768 -0.070454068119002316584 -0.015619139410571894824 0.036327417411028878336 0.023929010907225930355 0.061094298279105223315 -0.029677321741076088946 -0.075867879859390627284 -0.045856490001974760384 -0.073699937990589839409 -0.015921487132867152836 -0.049186630102979168877 -0.033144405202145829636 -0.0020764275790289051654 -0.013333222092061825653 -0.01124012896909725584 0.07249992096151727794 -0.022422561809242617936 0.0032295811092731283379 0.032107482625784000696;-0.021647025998451807638 -0.058521664395905656497 -0.011919032314612242052 -0.014842842602219101164 -0.025886383535779995679 0.030903677788776836438 0.009992831075782868458 0.017160436848195969456 -0.03027269735804329065 -0.00064196598436693788018 -0.0049420004399898138925 0.033421321997991165764 0.056250689894592184603 -0.036796052563223533016 0.0074425407107249355945 -0.057034941931083098232 -0.060367373996249390489 0.011664025179891509415 -0.032710615488762556646 -0.0084580676098165927246 0.035677729999297802532 0.082615294403028977088 0.033853353541202384214 -0.043562699591253341291 -0.0077239358683245653778 0.025104977010919047459 -0.050577607226388175687 -0.067341879433838527924 0.081913743956538512259 -0.066655944391425206441 -0.072758727389949845454 0.021979227947522085584 -0.025236388156369974484 0.0063902252516723403314 -0.026701632435793799802 -0.048249139485121134152 0.040252227527465857249 -0.0010219157032779388992 -0.023444684504789724266 0.013910385009373948603 0.0093772473715462364985 0.00036063828501495720415 0.039387479969502085797 -0.0041562458828755220741 -0.011546672856152623635 -0.011437239803885968295 0.084403922175134260542 -0.059766462231269613936 0.021801008531534583901 -0.029024924527412988839 0.12066512213188851366 -0.040707957410095363393 -0.0042156924894638150153 0.040387662312207792126 -0.021734408525330647238 -0.00065595906962037891889 0.0023777624113176022182 -0.02558177179459773104 0.031497967884640806768 -0.022009857212738140331 0.0261505200004486342 -0.081035477484091580913 -0.028677366194048228148 -0.016286804916505599056 -0.036035969357724878526 0.11546057634620618404 0.022973500397528712202 0.050687072652800341244 0.029691320409522846402 -0.0041763277746570863849 -0.0070391645618256464337 -0.045472420275515484933 0.0098388951882514806557 0.078473373758404463274 0.019558604170891981389 0.020301744725122160273 -0.041051085183122400235 0.011338110385727021706 -0.00679369592004555687 0.022686408527183496431 0.061545490094327227892 0.0033186988646637426495 -0.054144173767902502303 -0.081584491218874038987 -0.058630831765501628672 0.028965118952360778548 -0.035556974623439367711 0.022324118203145306566 0.025052126264128910665 0.0036614720276582422669 0.068132764974157419835 0.071946987999717409989 0.0069588528629194248976 -0.029358082236191806319 -0.021671683638307934899 -0.060769217480373574625 0.022770271779689689462 0.082141059727977291938 0.038510482007978130703 0.051622567970961326378 0.020699092831543898507 0.035114996466607005521 0.047084733502167720742 -0.0031142608135024908364 0.022884663735702446413 0.017431298255439233585 -0.05117203506957701542 -0.0078607475313989174509 0.012153033051059516575 -0.015929122931604009633;-0.061963406846825108687 -0.18474217411876159289 0.1100250835202814248 -0.15466536538385111665 -0.10725808946320576631 0.21173852081879690479 0.009183540906456481509 0.052478786313219699666 -0.17260526393283501245 -0.083276690860924262871 0.044917870870755216561 -0.035275195455561958457 -0.12425719198950717359 0.16042903203625272224 -0.090619641805166198378 -0.081276383497742091255 0.20376080996772721887 0.29794121732308975758 0.17885461757786200176 0.010600384750970734404 0.14491558918686089918 -0.093020624523153599972 0.09223616536291648349 0.21983944963161711206 -0.0050253093600507751579 -0.18256397117910885819 0.075935534549390087955 0.15541972284151900352 0.35810959110057893895 0.43336591049446060442 0.084302428749029073574 -0.1778267805131162338 0.23692386778104429501 0.092189165952710996899 0.39826806317216512099 -0.057082687765401457503 0.091544168936615127885 0.11459614606107924872 0.16309523138598566727 0.094822949735796371873 0.12948004917710123629 0.12934330466027518791 -0.065111960779035957247 -0.15614782005706256962 -0.23527636856263792198 0.15581214341253521449 -0.20136079555954133902 0.032586822277230337308 -0.11694723164472670129 0.28007153250623961771 -0.12259052166092755665 -0.11561901975270996723 -0.023494065149818096905 -0.087585671031920969698 -0.15514678126017242277 0.31056005923577006955 0.019863981516202312838 0.13961275718043883454 0.025257852373313294247 0.055551617634250156919 -0.31460669855041539789 0.14802080615279694653 -0.051044665017532693529 -0.19005105170487476829 0.16196474743686625763 -0.32304363664730495476 -0.1504668194221007449 -0.084620188566574619515 0.1706869876847187939 -0.097725934928689112136 0.074605774971641544702 0.095170039627663086113 -0.082794616198985898636 0.22241915519026922432 -0.094168489044803460608 -0.37583813445390962249 -0.17935461663288193579 -0.37985467735410560763 -0.25242119136288987402 0.061338467964515780428 -0.34267057221957231139 -0.1461500478481503329 0.066309513339251974218 0.13267328220759599944 0.15320332513190712542 0.092704379391303548541 0.091819803398909535797 0.041200295386237664741 0.14783690247929731632 0.079196449660110301849 0.045358908369807243721 0.047877716126886155079 -0.028921991387084542563 -0.1237505077603992254 0.036684949963577198617 -0.035122489612762729239 -0.17072253623942115763 -0.13815775614332614918 -0.040037115029727621263 -0.089253510841997910075 0.10857612127894512855 -0.0095704587715516684782 0.070606844919573696906 -0.058340021267568396846 0.45091359188234741984 -0.19990082342511006352 -0.059211755352463237012 0.025830208711169568014 0.11176334204988382093 0.19242546473467803114;0.01981242943876853832 0.05271254312809554865 -0.00020734252812969756184 0.010745090147020734672 0.029559571653702647331 -0.014179392422830313161 -0.0040140604261486231841 -0.0073727999036431691657 0.036652240681757354557 0.0047951077790134048404 0.0066053028932380351487 -0.0065973359702989941081 -0.023919418261079693905 0.02381645327335892709 -0.003662969166459945948 0.041956983569597032513 0.011203670056711936137 -0.029221688377561581829 0.024388267230759333448 -0.00271894816749247226 0.0056842875687589285161 -0.036825588630213970665 -0.0064981706948114012837 0.022460974914909798833 0.018992808093032137462 -0.022687921096674661114 0.022131317655007975986 0.046882604141725438274 -0.02118189591006086267 0.027334859021402046347 0.045039197227466777618 -0.0061157328794375492853 -0.0013414453046333837602 0.0089002691726354481866 0.0096269292810053953835 0.040802633466851111199 -0.0057872692520302615113 -0.014230552008749343743 -0.0060909959571289950739 -0.0030415357596549948832 -0.023117308969270170677 0.004037265794008966166 -0.024928632654136671093 0.010813040728165102325 0.020023434737681703594 0.011892324007419073292 -0.018756031447256675537 0.057105209605413785601 -0.011163023034039270751 0.0033274099707311945683 -0.094246172738914946176 0.0088217360081451010739 -0.013168671360428705827 -0.022851158870282450158 0.017394961601077778279 0.0024354013471867465984 0.014413837919670732454 0.0064614678882534701612 -0.028282485704525330006 0.005518511117316280204 -0.013405227025885970912 0.028635411366822530188 0.013499898077160794874 -0.0091225415323031803366 0.01464088845959928345 -0.044663516843605914619 0.01445384089898301902 -0.0098659419796225649585 -0.033788356352426600349 0.0057523681798286145639 0.012727190607605501707 0.005590561281993766847 0.0036473591811587340386 -0.028633442956621877468 -0.0043819366470319058224 -0.0023375015798675073848 0.013680521841422498691 -0.0095219554206617349618 0.0050802716812174634337 -0.031854843729162765631 -0.0032030344650879338797 0.013004567377625246907 0.036358910662648083467 0.0057750832208055598999 -0.0028512388095346717989 -0.025456440665432185366 0.013227030259227104056 -0.0054514629460870453123 -0.0095963300940972544317 0.0092672839886372235935 -0.02585743106521651638 -0.021324480036228245922 -0.011591446567056358508 0.030210158253902698322 0.011548917885683965961 0.042019296428324116877 -0.01600770622589500064 -0.030797797700065406706 -0.023795768755938154215 -0.018907263756301011942 -0.010985929155239101268 -0.010435602039991180925 -0.00072697136917698008604 0.017569076316340085514 0.014248817449254625248 -0.013552087588060174328 0.052618054966222571611 -0.020888498637315084522 0.0050597415668518583992 0.017995996907290291722;-0.064243572096211093436 -0.060551227409984482997 0.013982456215905091426 -0.051177331100870054881 -0.093956725892030981684 -0.01719821915133140644 0.032341634487652537455 -0.020489736449761496856 -0.1189749577389169477 0.029477848706616939511 0.0095893531066184485578 0.038593333507167877638 0.071141407647526785918 0.0024950913949462853736 0.035882577863399559015 0.031095163205231320103 0.0058672745529457876953 0.0048709864311434663067 -0.095165724552656510982 0.001556940427044156694 -0.0080019737764562299392 0.077428439986216290869 -0.0088908253312108276312 -0.031514444069718830499 -0.056739204790392926137 -0.036830112364159964256 -0.073685852507148610901 -0.047111546135096431243 -0.045260431316410915104 -0.096798958918767136206 -0.023839383679195604721 -0.011658719501196925655 -0.0034589649650296769648 -0.031030904634754233329 -0.020102894068882135731 -0.071118550432957991503 0.012072289483375991948 0.050372187090300848955 -0.041939979849207380258 -0.031187608766942355454 0.041211410784687659004 0.0054898039128530974964 0.057989752685037053437 -0.10021423030025856937 0.0089774729040820559767 0.021994146429465514375 0.054555149152820545111 -0.034402633661541406895 0.06934092406019756738 0.05776760457681341665 0.1269087974788213613 -0.010078306189682528782 -0.02288917902721511119 -0.0579912671919946901 -0.013032471311552447368 0.005483919460435930128 -0.0056428141524844255966 0.06893321774601722518 -0.010689916792968066905 0.039630654736453531373 0.059629583410667520715 0.073682459538859323978 0.048629619095872142487 0.032943099753993954071 -0.0026969864173246368283 0.0096114462168048111351 -0.032199682186243173965 -0.07829076913499943835 0.019495180331555918979 -0.029510924562707846475 -0.09366218743047073636 -0.00020471540965692877536 -0.074271400487968056159 0.067622176774805184407 0.035718049534312512616 -0.018456212569877124274 -0.030476960972917965798 0.02635560695583887697 0.034522316056838399378 0.075097143546850569917 0.065480194500281765912 0.023778348290278840393 -0.0066772714837299469715 0.010670962276239972719 -0.018147104896286715692 0.062109844462552007971 -0.038390891353595864299 -0.025611877362664847713 0.064690774595175803974 -0.044877644309887346208 -0.043022607133323925721 0.039570703454770497776 -0.047552289704604240594 -0.051031423414032085761 -0.00076856689536184785543 0.030894883148981019949 0.073956099804254549213 0.11884461511557570246 -0.031716519064605826206 0.050688647877660732155 0.011094414347015111449 -0.062364049557075001973 -0.052043827838662320984 -0.032042200457885749998 -0.05861863537844549249 -0.038917173571818904076 -0.12822696682906989385 0.029521791898392678311 -0.046708282087300198593 -0.083815374616724266921;-0.022868821640459117278 -0.051129030973112943315 -0.006293073456117434343 -0.018322082348286812536 -0.027922866162475665913 0.040553602426430121475 0.018007758694842852104 0.022041003732336868215 -0.072317765908394157637 0.01648049890242158505 0.019752563539875405557 0.057878004807756552874 0.10753502413805675342 -0.034966406416588421968 0.034097734549336192189 -0.045431451673324851903 -0.0759487728979783977 0.017284080241581779164 -0.061035680414703738506 -0.015548820513971906357 0.10282836889648151735 0.15320732343133044995 0.038497328799996601012 -0.092483729474925099878 -0.08523626050177013358 -0.029940863624405872345 -0.17902404317321843341 0.0060478547790699648673 0.12306382065061165221 -0.11132503264548343491 -0.10644349933840642486 0.073714642908896316209 -0.05254344611415737859 -0.023058660723227725892 -0.052474387810310718638 -0.079534770863579462574 0.072464083965690997968 -0.061601890870737835426 -0.020593321685438679275 0.00050504903992949583529 0.0016514733656810649462 0.017072874488708398438 0.016221248189019394498 0.0065948607869285545691 0.012680660199734503091 0.057273987061937231546 0.18770306425579044718 -0.039718669170709104688 0.033202482610990971534 -0.090993251531908639351 0.1133439202926982553 -0.053981314148553088961 -0.013679822056367533373 0.079667637709120622813 -0.040219595194950247263 0.01758052024517045217 0.033998725013070725531 -0.031621789181375897781 0.052426574253111042634 -0.009950784342085704226 -0.050759064081843018046 -0.24929321408008334182 -0.044701054882059894358 0.058675733304849299332 -0.010292638877872224354 0.17392760907881033017 0.060294081104270570715 0.072434141274605609584 -0.014624407236035315283 0.028563767947190971813 0.05732058240394169446 -0.076029845719025365702 0.018365371130620304629 0.088173871573383369449 0.084535380821906633275 -0.040747250327200307263 -0.1737853386100785269 0.013388871719359022108 0.055742542094312057255 0.058876000063503450277 0.095041777612718453261 0.02583891222561799858 -0.022627568448788992761 -0.23893479317936308637 -0.13844781005825473885 0.065012192426482914853 -0.0343956541049752762 -0.0040960365350281996433 0.034157625564138795193 -0.013019424212280257536 0.071277331291262305268 0.1149226819824679946 0.01176517405608366526 -0.018336072198415265255 -0.027091674845839915087 -0.012785167158279393124 -0.034146560198317910118 0.10100195873618293685 0.03743531576521714338 0.12606356185815975612 -0.008487339914788475867 0.082901481932539822228 0.081173473962564718365 0.071679400414531427299 0.067690883350796524076 0.0087686338919816739224 -0.071545680972758360361 0.036814656758813492365 0.034628138127656984957 -0.029869075667998644386];

% Layer 2
b2 = [0.057738572006584859553;0.087745990576678645212];
LW2_1 = [-0.26891571796993929411 0.84021168393869027913 -1.3206130080103688496 -0.28539459029671437884 0.28554509576439901508 1.2362115266448459039 0.13270860087387173487 -0.6766345676448499713 -0.49373982649848419113 1.2663078823757067948 0.6832912612131640806 0.36016690537808193628 1.2023800782776037366 1.4113404971131517929 0.41828685496276590827 -0.38198963387053275209 -1.3319714264998236963 0.2403008609655108152 -0.32444327321570709532 -0.62231930584676187213;-0.12378998400703228322 0.18302956076336224234 -0.15682136557034362379 0.16209304896621465342 -0.0045211765800387141226 0.13202558565502853227 0.52637648069199938217 -0.074252367571103372601 -0.043509667686522965346 0.10710047089636839934 0.26409741315834600606 0.0096658744019545769083 0.054361751747394077006 0.25800113129533452927 0.011847342903125075014 -0.053997580526090764586 -0.15715852580995526289 0.024628561259803043865 0.34515608339050124487 0.0001001035041569298947];

% Output 1
y1_step1.ymin = -1;
y1_step1.gain = [0.00446359381296302;0.00709639266706091];
y1_step1.xoffset = [80.375;146.5];

% ===== SIMULATION ========

% Format Input Arguments
isCellX = iscell(X);
if ~isCellX
    X = {X};
end

% Dimensions
TS = size(X,2); % timesteps
if ~isempty(X)
    Q = size(X{1},1); % samples/series
else
    Q = 0;
end

% Allocate Outputs
Y = cell(1,TS);

% Time loop
for ts=1:TS
    
    % Input 1
    X{1,ts} = X{1,ts}';
    Xp1 = mapminmax_apply(X{1,ts},x1_step1);
    
    % Layer 1
    a1 = tansig_apply(repmat(b1,1,Q) + IW1_1*Xp1);
    
    % Layer 2
    a2 = repmat(b2,1,Q) + LW2_1*a1;
    
    % Output 1
    Y{1,ts} = mapminmax_reverse(a2,y1_step1);
    Y{1,ts} = Y{1,ts}';
end

% Final Delay States
Xf = cell(1,0);
Af = cell(2,0);

% Format Output Arguments
if ~isCellX
    Y = cell2mat(Y);
end
end

% ===== MODULE FUNCTIONS ========

% Map Minimum and Maximum Input Processing Function
function y = mapminmax_apply(x,settings)
y = bsxfun(@minus,x,settings.xoffset);
y = bsxfun(@times,y,settings.gain);
y = bsxfun(@plus,y,settings.ymin);
end

% Sigmoid Symmetric Transfer Function
function a = tansig_apply(n,~)
a = 2 ./ (1 + exp(-2*n)) - 1;
end

% Map Minimum and Maximum Output Reverse-Processing Function
function x = mapminmax_reverse(y,settings)
x = bsxfun(@minus,y,settings.ymin);
x = bsxfun(@rdivide,x,settings.gain);
x = bsxfun(@plus,x,settings.xoffset);
end
